FANN_FLO_2.1
num_layers=3
learning_rate=0.100000
connection_rate=1.000000
network_type=0
learning_momentum=0.000000
training_algorithm=2
train_error_function=1
train_stop_function=0
cascade_output_change_fraction=0.010000
quickprop_decay=-0.000100
quickprop_mu=1.750000
rprop_increase_factor=1.200000
rprop_decrease_factor=0.500000
rprop_delta_min=0.000000
rprop_delta_max=50.000000
rprop_delta_zero=0.100000
cascade_output_stagnation_epochs=12
cascade_candidate_change_fraction=0.010000
cascade_candidate_stagnation_epochs=12
cascade_max_out_epochs=150
cascade_max_cand_epochs=150
cascade_num_candidate_groups=2
bit_fail_limit=3.49999994039535522461e-01
cascade_candidate_limit=1.00000000000000000000e+03
cascade_weight_multiplier=4.00000005960464477539e-01
cascade_activation_functions_count=10
cascade_activation_functions=3 5 7 8 10 11 14 15 16 17 
cascade_activation_steepnesses_count=4
cascade_activation_steepnesses=2.50000000000000000000e-01 5.00000000000000000000e-01 7.50000000000000000000e-01 1.00000000000000000000e+00 
layer_sizes=41 7 2 
scale_included=0
neurons (num_inputs, activation_function, activation_steepness)=(0, 0, 0.00000000000000000000e+00) (0, 0, 0.00000000000000000000e+00) (0, 0, 0.00000000000000000000e+00) (0, 0, 0.00000000000000000000e+00) (0, 0, 0.00000000000000000000e+00) (0, 0, 0.00000000000000000000e+00) (0, 0, 0.00000000000000000000e+00) (0, 0, 0.00000000000000000000e+00) (0, 0, 0.00000000000000000000e+00) (0, 0, 0.00000000000000000000e+00) (0, 0, 0.00000000000000000000e+00) (0, 0, 0.00000000000000000000e+00) (0, 0, 0.00000000000000000000e+00) (0, 0, 0.00000000000000000000e+00) (0, 0, 0.00000000000000000000e+00) (0, 0, 0.00000000000000000000e+00) (0, 0, 0.00000000000000000000e+00) (0, 0, 0.00000000000000000000e+00) (0, 0, 0.00000000000000000000e+00) (0, 0, 0.00000000000000000000e+00) (0, 0, 0.00000000000000000000e+00) (0, 0, 0.00000000000000000000e+00) (0, 0, 0.00000000000000000000e+00) (0, 0, 0.00000000000000000000e+00) (0, 0, 0.00000000000000000000e+00) (0, 0, 0.00000000000000000000e+00) (0, 0, 0.00000000000000000000e+00) (0, 0, 0.00000000000000000000e+00) (0, 0, 0.00000000000000000000e+00) (0, 0, 0.00000000000000000000e+00) (0, 0, 0.00000000000000000000e+00) (0, 0, 0.00000000000000000000e+00) (0, 0, 0.00000000000000000000e+00) (0, 0, 0.00000000000000000000e+00) (0, 0, 0.00000000000000000000e+00) (0, 0, 0.00000000000000000000e+00) (0, 0, 0.00000000000000000000e+00) (0, 0, 0.00000000000000000000e+00) (0, 0, 0.00000000000000000000e+00) (0, 0, 0.00000000000000000000e+00) (0, 0, 0.00000000000000000000e+00) (41, 5, 1.00000000000000000000e+00) (41, 5, 1.00000000000000000000e+00) (41, 5, 1.00000000000000000000e+00) (41, 5, 1.00000000000000000000e+00) (41, 5, 1.00000000000000000000e+00) (41, 5, 1.00000000000000000000e+00) (0, 5, 1.00000000000000000000e+00) (7, 5, 1.00000000000000000000e+00) (0, 5, 1.00000000000000000000e+00) 
connections (connected_to_neuron, weight)=(0, 3.94558578729629516602e-01) (1, 5.26785731315612792969e-01) (2, 3.91561061143875122070e-01) (3, -7.32343494892120361328e-02) (4, 5.84906876087188720703e-01) (5, 2.69291788339614868164e-01) (6, 4.18041169643402099609e-01) (7, 7.07971811294555664062e-01) (8, -1.97984427213668823242e-01) (9, 3.67546856403350830078e-01) (10, 3.22322607040405273438e-01) (11, 9.87930655479431152344e-01) (12, -5.27428090572357177734e-01) (13, -1.71139746904373168945e-01) (14, 2.81221687793731689453e-01) (15, -3.85964840650558471680e-01) (16, -3.54662626981735229492e-01) (17, -6.08550846576690673828e-01) (18, 2.57845431566238403320e-01) (19, -3.85916978120803833008e-01) (20, -3.44947010278701782227e-01) (21, 2.86935597658157348633e-01) (22, 1.64313137531280517578e-01) (23, -5.47728180885314941406e-01) (24, -6.67565613985061645508e-02) (25, 1.20204687118530273438e-01) (26, 4.77139025926589965820e-01) (27, 3.84688287973403930664e-01) (28, -3.21983844041824340820e-01) (29, -5.47208309173583984375e-01) (30, -2.46940419077873229980e-01) (31, 3.64353477954864501953e-01) (32, -7.67216920852661132812e-01) (33, 1.10570840537548065186e-01) (34, 8.30373525619506835938e-01) (35, 6.35190725326538085938e-01) (36, 1.22396755218505859375e+00) (37, 2.32354089617729187012e-01) (38, 4.93742167949676513672e-01) (39, -1.68125227093696594238e-01) (40, 7.84087479114532470703e-01) (0, -5.42069673538208007812e-01) (1, -6.00353777408599853516e-01) (2, -3.90398383140563964844e-01) (3, 1.33194759488105773926e-01) (4, 3.36702734231948852539e-01) (5, -1.50541758537292480469e+00) (6, 1.81483417749404907227e-01) (7, -5.98529458045959472656e-01) (8, 2.18654960393905639648e-01) (9, 9.36704456806182861328e-01) (10, -7.01682150363922119141e-01) (11, 1.11666895449161529541e-01) (12, -2.02710434794425964355e-01) (13, 5.14078848063945770264e-02) (14, 9.02311325073242187500e-01) (15, -4.97090667486190795898e-01) (16, -1.47333115339279174805e-01) (17, 7.95796513557434082031e-01) (18, 1.87526978552341461182e-02) (19, 2.63577938079833984375e-01) (20, -2.33652368187904357910e-01) (21, -6.02138936519622802734e-01) (22, 6.07259631156921386719e-01) (23, 5.42609512805938720703e-01) (24, -6.09083473682403564453e-01) (25, 3.31697195768356323242e-01) (26, 4.90808099508285522461e-01) (27, 2.30705827474594116211e-01) (28, -2.94670581817626953125e-01) (29, -9.33313369750976562500e-01) (30, -9.42191407084465026855e-02) (31, -7.74922549724578857422e-01) (32, -5.10003864765167236328e-01) (33, -4.55910742282867431641e-01) (34, 5.58395266532897949219e-01) (35, -1.12361542880535125732e-01) (36, 7.16031014919281005859e-01) (37, -6.14615261554718017578e-01) (38, 3.76887172460556030273e-01) (39, -2.15847361832857131958e-02) (40, 2.86547422409057617188e+00) (0, 2.87404447793960571289e-01) (1, -8.07095706462860107422e-01) (2, 7.55396962165832519531e-01) (3, -3.89950722455978393555e-01) (4, -8.61318945884704589844e-01) (5, 5.60283839702606201172e-01) (6, -3.48065048456192016602e-01) (7, 7.40828871726989746094e-01) (8, -7.07315981388092041016e-01) (9, 8.83464515209197998047e-01) (10, -5.15538454055786132812e-01) (11, -1.99383243918418884277e-01) (12, 5.03844976425170898438e-01) (13, 8.17608952522277832031e-01) (14, -1.66126489639282226562e-02) (15, -5.28102457523345947266e-01) (16, 7.00766265392303466797e-01) (17, 5.86012005805969238281e-01) (18, 6.36427938938140869141e-01) (19, -5.30448794364929199219e-01) (20, 3.96366506814956665039e-01) (21, -1.48486006259918212891e+00) (22, 9.60531651973724365234e-01) (23, -2.87484025955200195312e+00) (24, -5.10440587997436523438e-01) (25, -1.21750211715698242188e+00) (26, -5.12115001678466796875e-01) (27, -1.47383046150207519531e+00) (28, 4.43485528230667114258e-02) (29, -5.76837778091430664062e-01) (30, 4.30737316608428955078e-01) (31, -1.55415666103363037109e+00) (32, 2.36011415719985961914e-01) (33, 1.47436693310737609863e-01) (34, -2.61766242980957031250e+00) (35, 6.45420074462890625000e-01) (36, -1.13309785723686218262e-01) (37, 1.25951457023620605469e+00) (38, 4.94496822357177734375e-01) (39, 1.23910892009735107422e+00) (40, 4.66700744628906250000e+00) (0, 6.02357923984527587891e-01) (1, 6.66506528854370117188e-01) (2, 1.18987011909484863281e+00) (3, 6.31126940250396728516e-01) (4, 8.54536473751068115234e-01) (5, 4.69712018966674804688e-02) (6, -2.11720183491706848145e-01) (7, 6.35634481906890869141e-01) (8, 8.17499041557312011719e-01) (9, 1.13971412181854248047e+00) (10, -2.68085807561874389648e-01) (11, 1.09655416011810302734e+00) (12, 8.35332155227661132812e-01) (13, -3.81725281476974487305e-02) (14, -5.48496246337890625000e-01) (15, 2.02141672372817993164e-01) (16, 7.57793858647346496582e-02) (17, 6.17622956633567810059e-02) (18, 1.03146958351135253906e+00) (19, -6.09103858470916748047e-01) (20, 3.15736711025238037109e-01) (21, -7.47250318527221679688e-01) (22, 1.03432273864746093750e+00) (23, -7.71955668926239013672e-01) (24, -8.40920805931091308594e-02) (25, 4.13512289524078369141e-01) (26, -6.49565979838371276855e-02) (27, 6.57114982604980468750e-01) (28, 1.88711419701576232910e-01) (29, 7.08575785160064697266e-01) (30, -1.32455810904502868652e-01) (31, -3.20316493511199951172e-01) (32, 3.92868965864181518555e-01) (33, -2.68229454755783081055e-01) (34, 8.52574646472930908203e-01) (35, 8.09475928544998168945e-02) (36, 4.17259365320205688477e-01) (37, -3.00980716943740844727e-01) (38, -1.18637502193450927734e-01) (39, 5.21690487861633300781e-01) (40, -8.36303710937500000000e-01) (0, -1.62877231836318969727e-01) (1, -1.58849760890007019043e-01) (2, 9.54905629158020019531e-01) (3, 5.71757316589355468750e-01) (4, 4.57248352468013763428e-02) (5, 1.23005464673042297363e-01) (6, -3.74497443437576293945e-01) (7, -8.80576074123382568359e-01) (8, 2.42225244641304016113e-01) (9, -2.12468117475509643555e-01) (10, 1.20921261608600616455e-01) (11, 7.09564462304115295410e-02) (12, -1.25630453228950500488e-01) (13, -1.27831161022186279297e-01) (14, -7.09200739860534667969e-01) (15, -7.22473502159118652344e-01) (16, -9.83367443084716796875e-01) (17, 5.44586062431335449219e-01) (18, 2.90142837911844253540e-02) (19, 6.25551044940948486328e-01) (20, -6.46497845649719238281e-01) (21, 5.41286706924438476562e-01) (22, 4.54127639532089233398e-02) (23, -1.12567909061908721924e-01) (24, 4.80069816112518310547e-01) (25, 7.43828773498535156250e-01) (26, -6.99018359184265136719e-01) (27, 6.46504819393157958984e-01) (28, -4.32267963886260986328e-01) (29, -4.02183122932910919189e-02) (30, -6.96829378604888916016e-01) (31, 1.83691993355751037598e-01) (32, 7.07092940807342529297e-01) (33, -6.99390590190887451172e-01) (34, -2.20721602439880371094e-01) (35, -1.39670878648757934570e-01) (36, 3.50693434476852416992e-01) (37, 4.46925282478332519531e-01) (38, -5.47099625691771507263e-03) (39, -3.39061655104160308838e-02) (40, 1.37431561946868896484e+00) (0, 9.81609821319580078125e-01) (1, 9.37584400177001953125e-01) (2, 9.55705121159553527832e-02) (3, 5.63616454601287841797e-01) (4, 9.18768346309661865234e-01) (5, 3.08431059122085571289e-01) (6, 3.33032876253128051758e-01) (7, 7.69399464130401611328e-01) (8, -5.37333488464355468750e-01) (9, 5.47081651166081428528e-03) (10, -7.57923066616058349609e-01) (11, 6.30918979644775390625e-01) (12, -4.85362231731414794922e-01) (13, -4.76094335317611694336e-02) (14, 7.26847887039184570312e-01) (15, -6.99097394943237304688e-01) (16, 4.23160851001739501953e-01) (17, -1.70820370316505432129e-01) (18, -1.75910051912069320679e-02) (19, -1.06108725070953369141e+00) (20, 6.59525990486145019531e-01) (21, 3.13980966806411743164e-01) (22, 9.19988930225372314453e-01) (23, 1.49974092841148376465e-01) (24, -4.76649641990661621094e-01) (25, -4.65659528970718383789e-01) (26, -3.23776632547378540039e-01) (27, 4.39238339662551879883e-01) (28, 4.22424882650375366211e-01) (29, 5.05575649440288543701e-02) (30, 6.76765620708465576172e-01) (31, 2.18456193804740905762e-01) (32, 9.07526016235351562500e-02) (33, -6.42197906970977783203e-01) (34, -3.86333882808685302734e-01) (35, -2.46432334184646606445e-01) (36, 4.60816293954849243164e-01) (37, 7.19327867031097412109e-01) (38, -2.84012824296951293945e-01) (39, 6.29964768886566162109e-01) (40, 6.70395612716674804688e-01) (41, 1.83401212096214294434e-01) (42, 5.69442152976989746094e-01) (43, 2.43738278746604919434e-01) (44, 5.78459441661834716797e-01) (45, 4.50617969036102294922e-02) (46, 2.77181923389434814453e-01) (47, -1.37398087978363037109e+00) 
