FANN_FLO_2.1
num_layers=3
learning_rate=0.100000
connection_rate=1.000000
network_type=0
learning_momentum=0.000000
training_algorithm=2
train_error_function=1
train_stop_function=0
cascade_output_change_fraction=0.010000
quickprop_decay=-0.000100
quickprop_mu=1.750000
rprop_increase_factor=1.200000
rprop_decrease_factor=0.500000
rprop_delta_min=0.000000
rprop_delta_max=50.000000
rprop_delta_zero=0.100000
cascade_output_stagnation_epochs=12
cascade_candidate_change_fraction=0.010000
cascade_candidate_stagnation_epochs=12
cascade_max_out_epochs=150
cascade_max_cand_epochs=150
cascade_num_candidate_groups=2
bit_fail_limit=3.49999994039535522461e-01
cascade_candidate_limit=1.00000000000000000000e+03
cascade_weight_multiplier=4.00000005960464477539e-01
cascade_activation_functions_count=10
cascade_activation_functions=3 5 7 8 10 11 14 15 16 17 
cascade_activation_steepnesses_count=4
cascade_activation_steepnesses=2.50000000000000000000e-01 5.00000000000000000000e-01 7.50000000000000000000e-01 1.00000000000000000000e+00 
layer_sizes=41 7 2 
scale_included=0
neurons (num_inputs, activation_function, activation_steepness)=(0, 0, 0.00000000000000000000e+00) (0, 0, 0.00000000000000000000e+00) (0, 0, 0.00000000000000000000e+00) (0, 0, 0.00000000000000000000e+00) (0, 0, 0.00000000000000000000e+00) (0, 0, 0.00000000000000000000e+00) (0, 0, 0.00000000000000000000e+00) (0, 0, 0.00000000000000000000e+00) (0, 0, 0.00000000000000000000e+00) (0, 0, 0.00000000000000000000e+00) (0, 0, 0.00000000000000000000e+00) (0, 0, 0.00000000000000000000e+00) (0, 0, 0.00000000000000000000e+00) (0, 0, 0.00000000000000000000e+00) (0, 0, 0.00000000000000000000e+00) (0, 0, 0.00000000000000000000e+00) (0, 0, 0.00000000000000000000e+00) (0, 0, 0.00000000000000000000e+00) (0, 0, 0.00000000000000000000e+00) (0, 0, 0.00000000000000000000e+00) (0, 0, 0.00000000000000000000e+00) (0, 0, 0.00000000000000000000e+00) (0, 0, 0.00000000000000000000e+00) (0, 0, 0.00000000000000000000e+00) (0, 0, 0.00000000000000000000e+00) (0, 0, 0.00000000000000000000e+00) (0, 0, 0.00000000000000000000e+00) (0, 0, 0.00000000000000000000e+00) (0, 0, 0.00000000000000000000e+00) (0, 0, 0.00000000000000000000e+00) (0, 0, 0.00000000000000000000e+00) (0, 0, 0.00000000000000000000e+00) (0, 0, 0.00000000000000000000e+00) (0, 0, 0.00000000000000000000e+00) (0, 0, 0.00000000000000000000e+00) (0, 0, 0.00000000000000000000e+00) (0, 0, 0.00000000000000000000e+00) (0, 0, 0.00000000000000000000e+00) (0, 0, 0.00000000000000000000e+00) (0, 0, 0.00000000000000000000e+00) (0, 0, 0.00000000000000000000e+00) (41, 5, 1.00000000000000000000e+00) (41, 5, 1.00000000000000000000e+00) (41, 5, 1.00000000000000000000e+00) (41, 5, 1.00000000000000000000e+00) (41, 5, 1.00000000000000000000e+00) (41, 5, 1.00000000000000000000e+00) (0, 5, 1.00000000000000000000e+00) (7, 5, 1.00000000000000000000e+00) (0, 5, 1.00000000000000000000e+00) 
connections (connected_to_neuron, weight)=(0, -6.82510559082031250000e+02) (1, 9.53770019531250000000e+02) (2, -1.46685237884521484375e+01) (3, 1.32200000000000000000e+03) (4, -1.21909439563751220703e+00) (5, 9.28102111816406250000e+02) (6, 2.74409818649291992188e+00) (7, -9.70739440917968750000e+01) (8, 3.35970497131347656250e+00) (9, 3.15945465087890625000e+02) (10, 1.49100830078125000000e+03) (11, 9.61105880737304687500e+01) (12, 1.49327465820312500000e+03) (13, -8.05119506835937500000e+02) (14, 3.25748014450073242188e+00) (15, -9.01575195312500000000e+02) (16, 4.85756206512451171875e+00) (17, -3.99117187500000000000e+02) (18, 4.23715591430664062500e+00) (19, -5.96735290527343750000e+02) (20, 6.80227470397949218750e+00) (21, -6.90674621582031250000e+02) (22, 3.51190161705017089844e+00) (23, -3.07678802490234375000e+02) (24, 2.25079421997070312500e+01) (25, -7.94996490478515625000e+01) (26, 4.93529319763183593750e+01) (27, -4.71112899780273437500e+01) (28, 9.57902073860168457031e-01) (29, -1.91482067108154296875e+01) (30, 1.58141946792602539062e+00) (31, -5.01668787002563476562e+00) (32, 1.66343188285827636719e+00) (33, -2.18817329406738281250e+01) (34, 1.21675086021423339844e+00) (35, -4.39899559020996093750e+01) (36, 3.16229200363159179688e+00) (37, -4.04590072631835937500e+01) (38, 1.95996057987213134766e+00) (39, -1.01676307678222656250e+02) (40, 7.81519365310668945312e+00) (0, 4.02402257919311523438e+00) (1, -3.90210188925266265869e-02) (2, -1.59484910964965820312e+00) (3, 5.22526204586029052734e-01) (4, -8.94424796104431152344e-01) (5, 6.73313617706298828125e-01) (6, -7.52649784088134765625e-01) (7, 1.88923847675323486328e+00) (8, -1.49154853820800781250e+00) (9, -9.74915802478790283203e-01) (10, -1.20493113994598388672e+00) (11, -1.17574669420719146729e-01) (12, -1.60206925868988037109e+00) (13, 9.64024245738983154297e-01) (14, -1.13700532913208007812e+00) (15, -5.30494630336761474609e-01) (16, -1.89348661899566650391e+00) (17, -2.05947923660278320312e+00) (18, -1.32481336593627929688e+00) (19, -6.41423225402832031250e-01) (20, -1.09665834903717041016e+00) (21, -1.57206380367279052734e+00) (22, -1.30998170375823974609e+00) (23, -2.54341673851013183594e+00) (24, 3.19974958896636962891e-01) (25, -5.93366241455078125000e+00) (26, 1.37958928942680358887e-01) (27, -6.70952653884887695312e+00) (28, 2.63045281171798706055e-01) (29, -1.53370018005371093750e+01) (30, 2.43874415755271911621e-02) (31, -2.11543998718261718750e+01) (32, 4.21675562858581542969e-01) (33, -2.08825874328613281250e+01) (34, 1.08208286762237548828e+00) (35, -1.96002273559570312500e+01) (36, 1.75788128376007080078e+00) (37, -2.02858829498291015625e+01) (38, 2.15236949920654296875e+00) (39, -1.40601768493652343750e+01) (40, 1.67478847503662109375e+00) (0, -1.29922741699218750000e+03) (1, 1.24174047851562500000e+03) (2, -5.43691787719726562500e+01) (3, 9.29417785644531250000e+02) (4, -7.82238245010375976562e+00) (5, 4.56289276123046875000e+02) (6, -3.17460179328918457031e+00) (7, -1.24390954589843750000e+03) (8, -1.64027869701385498047e+00) (9, 2.98166412353515625000e+02) (10, 6.94321166992187500000e+02) (11, 8.16389999389648437500e+01) (12, 1.17914721679687500000e+03) (13, -8.27703247070312500000e+02) (14, 1.94904088973999023438e+00) (15, -9.30383117675781250000e+02) (16, 3.27569627761840820312e+00) (17, -5.57536193847656250000e+02) (18, 3.56455349922180175781e+00) (19, -1.00740509033203125000e+03) (20, 4.61430740356445312500e+00) (21, -7.77502502441406250000e+02) (22, 3.01620435714721679688e+00) (23, -3.53776214599609375000e+02) (24, 2.18297939300537109375e+01) (25, -8.54087219238281250000e+01) (26, 4.91645431518554687500e+01) (27, -5.29127922058105468750e+01) (28, -5.33741831779479980469e-01) (29, -2.26894989013671875000e+01) (30, -2.75654494762420654297e-01) (31, -7.75560951232910156250e+00) (32, -8.98653209209442138672e-01) (33, -2.40325565338134765625e+01) (34, -5.74110794067382812500e+00) (35, -4.79059715270996093750e+01) (36, -2.96338498592376708984e-01) (37, -5.51500129699707031250e+01) (38, -5.74303150177001953125e+00) (39, -4.17791900634765625000e+02) (40, 6.92470836639404296875e+00) (0, -6.84728271484375000000e+02) (1, 9.53761962890625000000e+02) (2, -1.27776279449462890625e+01) (3, 1.32370788574218750000e+03) (4, -2.64671444892883300781e-01) (5, 9.28362670898437500000e+02) (6, 1.59113442897796630859e+00) (7, -1.01382064819335937500e+02) (8, 4.70670461654663085938e+00) (9, 3.17591125488281250000e+02) (10, 1.49100830078125000000e+03) (11, 9.56657333374023437500e+01) (12, 1.49327465820312500000e+03) (13, -8.05787963867187500000e+02) (14, 3.53308606147766113281e+00) (15, -9.00895385742187500000e+02) (16, 4.47599506378173828125e+00) (17, -4.02687652587890625000e+02) (18, 5.38571119308471679688e+00) (19, -5.97857727050781250000e+02) (20, 7.42430114746093750000e+00) (21, -6.94976257324218750000e+02) (22, 3.92693519592285156250e+00) (23, -3.08383178710937500000e+02) (24, 2.32819480895996093750e+01) (25, -8.05688934326171875000e+01) (26, 5.10750312805175781250e+01) (27, -4.76123695373535156250e+01) (28, 2.20753908157348632812e+00) (29, -1.92550354003906250000e+01) (30, 2.16350102424621582031e+00) (31, -5.19990873336791992188e+00) (32, 3.09015965461730957031e+00) (33, -2.08633804321289062500e+01) (34, 4.37095761299133300781e-01) (35, -4.46917495727539062500e+01) (36, 3.89562058448791503906e+00) (37, -4.12014732360839843750e+01) (38, 1.93582367897033691406e+00) (39, -1.04884735107421875000e+02) (40, 6.77773237228393554688e+00) (0, -1.08501968383789062500e+01) (1, -8.95722274780273437500e+01) (2, -7.74336957931518554688e+00) (3, -1.35449004173278808594e+00) (4, -5.90934658050537109375e+00) (5, -1.06385266780853271484e+00) (6, -5.47418785095214843750e+00) (7, 8.97397041320800781250e-01) (8, -5.53106498718261718750e+00) (9, 1.25710725784301757812e+00) (10, -5.60713672637939453125e+00) (11, 2.43182492256164550781e+00) (12, -3.69515848159790039062e+00) (13, 4.44327211380004882812e+00) (14, -1.51487576961517333984e+00) (15, 9.59584045410156250000e+00) (16, -2.16851258277893066406e+00) (17, 2.23027687072753906250e+01) (18, -1.34918665885925292969e+00) (19, 2.27652549743652343750e+01) (20, -1.72278475761413574219e+00) (21, 2.25488281250000000000e+01) (22, -1.29115700721740722656e+00) (23, 2.16547489166259765625e+01) (24, -5.31076788902282714844e-01) (25, 4.17824983596801757812e+00) (26, -6.26035988330841064453e-01) (27, 2.97533202171325683594e+00) (28, -2.19719409942626953125e+00) (29, 1.71783208847045898438e+00) (30, -8.76093327999114990234e-01) (31, 6.12078726291656494141e-01) (32, 5.14721423387527465820e-02) (33, -6.66808903217315673828e-01) (34, -2.68608713150024414062e+00) (35, -5.49956738948822021484e-01) (36, 2.11294159293174743652e-01) (37, -1.57547008991241455078e+00) (38, -2.11732316017150878906e+00) (39, -1.63127410411834716797e+00) (40, 7.43908584117889404297e-01) (0, -1.46618041992187500000e+02) (1, 6.17278695106506347656e-01) (2, -1.22044090270996093750e+02) (3, -1.12085127830505371094e+00) (4, -2.84211044311523437500e+01) (5, 2.58280366659164428711e-01) (6, -2.95137100219726562500e+01) (7, 1.59178599715232849121e-02) (8, -2.92624263763427734375e+01) (9, -4.88848507404327392578e-01) (10, -2.89689788818359375000e+01) (11, 1.21567285060882568359e+00) (12, -1.28057384490966796875e+01) (13, 4.33972024917602539062e+00) (14, -4.29517078399658203125e+00) (15, 9.18931865692138671875e+00) (16, -1.88644063472747802734e+00) (17, 2.21379375457763671875e+01) (18, -7.95510947704315185547e-01) (19, 2.22857761383056640625e+01) (20, -1.26360249519348144531e+00) (21, 2.26892223358154296875e+01) (22, -1.66076287627220153809e-01) (23, 2.18465919494628906250e+01) (24, -7.74443864822387695312e-01) (25, 3.54421758651733398438e+00) (26, -1.95076823234558105469e+00) (27, 3.42041206359863281250e+00) (28, -1.86390936374664306641e+00) (29, 1.17368781566619873047e+00) (30, -1.87143409252166748047e+00) (31, 7.72766590118408203125e-01) (32, -1.51088972091674804688e+01) (33, 1.52196690440177917480e-01) (34, -2.30100372314453125000e+02) (35, -6.98101818561553955078e-01) (36, -4.39122123718261718750e+01) (37, -6.90876662731170654297e-01) (38, -1.02672111511230468750e+02) (39, -1.20440864562988281250e+00) (40, -2.05219779163599014282e-02) (41, 7.27662420272827148438e+00) (42, 2.33732509613037109375e+00) (43, 3.15501689910888671875e+00) (44, 7.67017698287963867188e+00) (45, 9.78506278991699218750e+00) (46, 7.25229263305664062500e+00) (47, 8.06618213653564453125e+00) 
