FANN_FIX_2.0
decimal_point=8
num_layers=3
learning_rate=0.100000
connection_rate=1.000000
network_type=0
learning_momentum=0.000000
training_algorithm=2
train_error_function=1
train_stop_function=0
cascade_output_change_fraction=0.010000
quickprop_decay=-0.000100
quickprop_mu=1.750000
rprop_increase_factor=1.200000
rprop_decrease_factor=0.500000
rprop_delta_min=0.000000
rprop_delta_max=50.000000
rprop_delta_zero=0.100000
cascade_output_stagnation_epochs=12
cascade_candidate_change_fraction=0.010000
cascade_candidate_stagnation_epochs=12
cascade_max_out_epochs=150
cascade_max_cand_epochs=150
cascade_num_candidate_groups=2
bit_fail_limit=90
cascade_candidate_limit=256000
cascade_weight_multiplier=102
cascade_activation_functions_count=10
cascade_activation_functions=3 5 7 8 10 11 14 15 16 17 
cascade_activation_steepnesses_count=4
cascade_activation_steepnesses=64 128 192 256 
layer_sizes=41 7 2 
neurons (num_inputs, activation_function, activation_steepness)=(0, 0, 0) (0, 0, 0) (0, 0, 0) (0, 0, 0) (0, 0, 0) (0, 0, 0) (0, 0, 0) (0, 0, 0) (0, 0, 0) (0, 0, 0) (0, 0, 0) (0, 0, 0) (0, 0, 0) (0, 0, 0) (0, 0, 0) (0, 0, 0) (0, 0, 0) (0, 0, 0) (0, 0, 0) (0, 0, 0) (0, 0, 0) (0, 0, 0) (0, 0, 0) (0, 0, 0) (0, 0, 0) (0, 0, 0) (0, 0, 0) (0, 0, 0) (0, 0, 0) (0, 0, 0) (0, 0, 0) (0, 0, 0) (0, 0, 0) (0, 0, 0) (0, 0, 0) (0, 0, 0) (0, 0, 0) (0, 0, 0) (0, 0, 0) (0, 0, 0) (0, 0, 0) (41, 5, 256) (41, 5, 256) (41, 5, 256) (41, 5, 256) (41, 5, 256) (41, 5, 256) (0, 5, 256) (7, 5, 256) (0, 5, 256) 
connections (connected_to_neuron, weight)=(0, -174723) (1, 244165) (2, -3755) (3, 338432) (4, -312) (5, 237594) (6, 702) (7, -24851) (8, 860) (9, 80882) (10, 381698) (11, 24604) (12, 382278) (13, -206111) (14, 834) (15, -230803) (16, 1244) (17, -102174) (18, 1085) (19, -152764) (20, 1741) (21, -176813) (22, 899) (23, -78766) (24, 5762) (25, -20352) (26, 12634) (27, -12060) (28, 245) (29, -4902) (30, 405) (31, -1284) (32, 426) (33, -5602) (34, 311) (35, -11261) (36, 810) (37, -10358) (38, 502) (39, -26029) (40, 2001) (0, 1030) (1, -10) (2, -408) (3, 134) (4, -229) (5, 172) (6, -193) (7, 484) (8, -382) (9, -250) (10, -308) (11, -30) (12, -410) (13, 247) (14, -291) (15, -136) (16, -485) (17, -527) (18, -339) (19, -164) (20, -281) (21, -402) (22, -335) (23, -651) (24, 82) (25, -1519) (26, 35) (27, -1718) (28, 67) (29, -3926) (30, 6) (31, -5416) (32, 108) (33, -5346) (34, 277) (35, -5018) (36, 450) (37, -5193) (38, 551) (39, -3599) (40, 429) (0, -332602) (1, 317886) (2, -13919) (3, 237931) (4, -2003) (5, 116810) (6, -813) (7, -318441) (8, -420) (9, 76331) (10, 177746) (11, 20900) (12, 301862) (13, -211892) (14, 499) (15, -238178) (16, 839) (17, -142729) (18, 913) (19, -257896) (20, 1181) (21, -199041) (22, 772) (23, -90567) (24, 5588) (25, -21865) (26, 12586) (27, -13546) (28, -137) (29, -5809) (30, -71) (31, -1985) (32, -230) (33, -6152) (34, -1470) (35, -12264) (36, -76) (37, -14118) (38, -1470) (39, -106955) (40, 1773) (0, -175290) (1, 244163) (2, -3271) (3, 338869) (4, -68) (5, 237661) (6, 407) (7, -25954) (8, 1205) (9, 81303) (10, 381698) (11, 24490) (12, 382278) (13, -206282) (14, 904) (15, -230629) (16, 1146) (17, -103088) (18, 1379) (19, -153052) (20, 1901) (21, -177914) (22, 1005) (23, -78946) (24, 5960) (25, -20626) (26, 13075) (27, -12189) (28, 565) (29, -4929) (30, 554) (31, -1331) (32, 791) (33, -5341) (34, 112) (35, -11441) (36, 997) (37, -10548) (38, 496) (39, -26850) (40, 1735) (0, -2778) (1, -22930) (2, -1982) (3, -347) (4, -1513) (5, -272) (6, -1401) (7, 230) (8, -1416) (9, 322) (10, -1435) (11, 623) (12, -946) (13, 1137) (14, -388) (15, 2457) (16, -555) (17, 5710) (18, -345) (19, 5828) (20, -441) (21, 5773) (22, -331) (23, 5544) (24, -136) (25, 1070) (26, -160) (27, 762) (28, -562) (29, 440) (30, -224) (31, 157) (32, 13) (33, -171) (34, -688) (35, -141) (36, 54) (37, -403) (38, -542) (39, -418) (40, 190) (0, -37534) (1, 158) (2, -31243) (3, -287) (4, -7276) (5, 66) (6, -7556) (7, 4) (8, -7491) (9, -125) (10, -7416) (11, 311) (12, -3278) (13, 1111) (14, -1100) (15, 2352) (16, -483) (17, 5667) (18, -204) (19, 5705) (20, -323) (21, 5808) (22, -43) (23, 5593) (24, -198) (25, 907) (26, -499) (27, 876) (28, -477) (29, 300) (30, -479) (31, 198) (32, -3868) (33, 39) (34, -58906) (35, -179) (36, -11242) (37, -177) (38, -26284) (39, -308) (40, -5) (41, 1863) (42, 598) (43, 808) (44, 1964) (45, 2505) (46, 1857) (47, 2065) 
