FANN_FIX_2.0
decimal_point=12
num_layers=3
learning_rate=0.100000
connection_rate=1.000000
network_type=0
learning_momentum=0.000000
training_algorithm=2
train_error_function=1
train_stop_function=0
cascade_output_change_fraction=0.010000
quickprop_decay=-0.000100
quickprop_mu=1.750000
rprop_increase_factor=1.200000
rprop_decrease_factor=0.500000
rprop_delta_min=0.000000
rprop_delta_max=50.000000
rprop_delta_zero=0.100000
cascade_output_stagnation_epochs=12
cascade_candidate_change_fraction=0.010000
cascade_candidate_stagnation_epochs=12
cascade_max_out_epochs=150
cascade_max_cand_epochs=150
cascade_num_candidate_groups=2
bit_fail_limit=1434
cascade_candidate_limit=4096000
cascade_weight_multiplier=1638
cascade_activation_functions_count=10
cascade_activation_functions=3 5 7 8 10 11 14 15 16 17 
cascade_activation_steepnesses_count=4
cascade_activation_steepnesses=1024 2048 3072 4096 
layer_sizes=41 7 2 
neurons (num_inputs, activation_function, activation_steepness)=(0, 0, 0) (0, 0, 0) (0, 0, 0) (0, 0, 0) (0, 0, 0) (0, 0, 0) (0, 0, 0) (0, 0, 0) (0, 0, 0) (0, 0, 0) (0, 0, 0) (0, 0, 0) (0, 0, 0) (0, 0, 0) (0, 0, 0) (0, 0, 0) (0, 0, 0) (0, 0, 0) (0, 0, 0) (0, 0, 0) (0, 0, 0) (0, 0, 0) (0, 0, 0) (0, 0, 0) (0, 0, 0) (0, 0, 0) (0, 0, 0) (0, 0, 0) (0, 0, 0) (0, 0, 0) (0, 0, 0) (0, 0, 0) (0, 0, 0) (0, 0, 0) (0, 0, 0) (0, 0, 0) (0, 0, 0) (0, 0, 0) (0, 0, 0) (0, 0, 0) (0, 0, 0) (41, 5, 4096) (41, 5, 4096) (41, 5, 4096) (41, 5, 4096) (41, 5, 4096) (41, 5, 4096) (0, 5, 4096) (7, 5, 4096) (0, 5, 4096) 
connections (connected_to_neuron, weight)=(0, 1616) (1, 2158) (2, 1604) (3, -300) (4, 2396) (5, 1103) (6, 1712) (7, 2900) (8, -811) (9, 1505) (10, 1320) (11, 4047) (12, -2160) (13, -701) (14, 1152) (15, -1581) (16, -1453) (17, -2493) (18, 1056) (19, -1581) (20, -1413) (21, 1175) (22, 673) (23, -2243) (24, -273) (25, 492) (26, 1954) (27, 1576) (28, -1319) (29, -2241) (30, -1011) (31, 1492) (32, -3143) (33, 453) (34, 3401) (35, 2602) (36, 5013) (37, 952) (38, 2022) (39, -689) (40, 3212) (0, -2220) (1, -2459) (2, -1599) (3, 546) (4, 1379) (5, -6166) (6, 743) (7, -2452) (8, 896) (9, 3837) (10, -2874) (11, 457) (12, -830) (13, 211) (14, 3696) (15, -2036) (16, -603) (17, 3260) (18, 77) (19, 1080) (20, -957) (21, -2466) (22, 2487) (23, 2223) (24, -2495) (25, 1359) (26, 2010) (27, 945) (28, -1207) (29, -3823) (30, -386) (31, -3174) (32, -2089) (33, -1867) (34, 2287) (35, -460) (36, 2933) (37, -2517) (38, 1544) (39, -88) (40, 11737) (0, 1177) (1, -3306) (2, 3094) (3, -1597) (4, -3528) (5, 2295) (6, -1426) (7, 3034) (8, -2897) (9, 3619) (10, -2112) (11, -817) (12, 2064) (13, 3349) (14, -68) (15, -2163) (16, 2870) (17, 2400) (18, 2607) (19, -2173) (20, 1624) (21, -6082) (22, 3934) (23, -11775) (24, -2091) (25, -4987) (26, -2098) (27, -6037) (28, 182) (29, -2363) (30, 1764) (31, -6366) (32, 967) (33, 604) (34, -10722) (35, 2644) (36, -464) (37, 5159) (38, 2025) (39, 5075) (40, 19116) (0, 2467) (1, 2730) (2, 4874) (3, 2585) (4, 3500) (5, 192) (6, -867) (7, 2604) (8, 3348) (9, 4668) (10, -1098) (11, 4491) (12, 3422) (13, -156) (14, -2247) (15, 828) (16, 310) (17, 253) (18, 4225) (19, -2495) (20, 1293) (21, -3061) (22, 4237) (23, -3162) (24, -344) (25, 1694) (26, -266) (27, 2692) (28, 773) (29, 2902) (30, -543) (31, -1312) (32, 1609) (33, -1099) (34, 3492) (35, 332) (36, 1709) (37, -1233) (38, -486) (39, 2137) (40, -3425) (0, -667) (1, -651) (2, 3911) (3, 2342) (4, 187) (5, 504) (6, -1534) (7, -3607) (8, 992) (9, -870) (10, 495) (11, 291) (12, -515) (13, -524) (14, -2905) (15, -2959) (16, -4028) (17, 2231) (18, 119) (19, 2562) (20, -2648) (21, 2217) (22, 186) (23, -461) (24, 1966) (25, 3047) (26, -2863) (27, 2648) (28, -1771) (29, -165) (30, -2854) (31, 752) (32, 2896) (33, -2865) (34, -904) (35, -572) (36, 1436) (37, 1831) (38, -22) (39, -139) (40, 5629) (0, 4021) (1, 3840) (2, 391) (3, 2309) (4, 3763) (5, 1263) (6, 1364) (7, 3151) (8, -2201) (9, 22) (10, -3104) (11, 2584) (12, -1988) (13, -195) (14, 2977) (15, -2864) (16, 1733) (17, -700) (18, -72) (19, -4346) (20, 2701) (21, 1286) (22, 3768) (23, 614) (24, -1952) (25, -1907) (26, -1326) (27, 1799) (28, 1730) (29, 207) (30, 2772) (31, 895) (32, 372) (33, -2630) (34, -1582) (35, -1009) (36, 1888) (37, 2946) (38, -1163) (39, 2580) (40, 2746) (41, 751) (42, 2332) (43, 998) (44, 2369) (45, 185) (46, 1135) (47, -5628) 
